digraph Tree {
node [shape=box, fontname="helvetica"] ;
edge [fontname="helvetica"] ;
0 [label="CHD6 <= 2.5\ngini = 0.514\nsamples = 189\nvalue = [6, 112, 69, 2]"] ;
1 [label="CHD12 <= 4.5\ngini = 0.532\nsamples = 46\nvalue = [2, 19, 25, 0]"] ;
0 -> 1 [labeldistance=2.5, labelangle=45, headlabel="True"] ;
2 [label="CHD4 <= 3.5\ngini = 0.444\nsamples = 33\nvalue = [0, 11, 22, 0]"] ;
1 -> 2 ;
3 [label="CHD9 <= 4.5\ngini = 0.412\nsamples = 31\nvalue = [0, 9, 22, 0]"] ;
2 -> 3 ;
4 [label="CHD10 <= 1.5\ngini = 0.32\nsamples = 25\nvalue = [0, 5, 20, 0]"] ;
3 -> 4 ;
5 [label="CHD11 <= 3.5\ngini = 0.444\nsamples = 3\nvalue = [0, 2, 1, 0]"] ;
4 -> 5 ;
6 [label="gini = 0.0\nsamples = 2\nvalue = [0, 2, 0, 0]"] ;
5 -> 6 ;
7 [label="gini = 0.0\nsamples = 1\nvalue = [0, 0, 1, 0]"] ;
5 -> 7 ;
8 [label="CHD7 <= 4.5\ngini = 0.236\nsamples = 22\nvalue = [0, 3, 19, 0]"] ;
4 -> 8 ;
9 [label="CHD13 <= 1.5\ngini = 0.172\nsamples = 21\nvalue = [0, 2, 19, 0]"] ;
8 -> 9 ;
10 [label="CHD6 <= 1.5\ngini = 0.5\nsamples = 2\nvalue = [0, 1, 1, 0]"] ;
9 -> 10 ;
11 [label="gini = 0.0\nsamples = 1\nvalue = [0, 0, 1, 0]"] ;
10 -> 11 ;
12 [label="gini = 0.0\nsamples = 1\nvalue = [0, 1, 0, 0]"] ;
10 -> 12 ;
13 [label="CHD3 <= 1.5\ngini = 0.1\nsamples = 19\nvalue = [0, 1, 18, 0]"] ;
9 -> 13 ;
14 [label="CHD11 <= 4.0\ngini = 0.375\nsamples = 4\nvalue = [0, 1, 3, 0]"] ;
13 -> 14 ;
15 [label="CHD14 <= 3.5\ngini = 0.5\nsamples = 2\nvalue = [0, 1, 1, 0]"] ;
14 -> 15 ;
16 [label="gini = 0.0\nsamples = 1\nvalue = [0, 1, 0, 0]"] ;
15 -> 16 ;
17 [label="gini = 0.0\nsamples = 1\nvalue = [0, 0, 1, 0]"] ;
15 -> 17 ;
18 [label="gini = 0.0\nsamples = 2\nvalue = [0, 0, 2, 0]"] ;
14 -> 18 ;
19 [label="gini = 0.0\nsamples = 15\nvalue = [0, 0, 15, 0]"] ;
13 -> 19 ;
20 [label="gini = 0.0\nsamples = 1\nvalue = [0, 1, 0, 0]"] ;
8 -> 20 ;
21 [label="CHD10 <= 4.0\ngini = 0.444\nsamples = 6\nvalue = [0, 4, 2, 0]"] ;
3 -> 21 ;
22 [label="gini = 0.0\nsamples = 4\nvalue = [0, 4, 0, 0]"] ;
21 -> 22 ;
23 [label="gini = 0.0\nsamples = 2\nvalue = [0, 0, 2, 0]"] ;
21 -> 23 ;
24 [label="gini = 0.0\nsamples = 2\nvalue = [0, 2, 0, 0]"] ;
2 -> 24 ;
25 [label="CHD3 <= 2.5\ngini = 0.544\nsamples = 13\nvalue = [2, 8, 3, 0]"] ;
1 -> 25 ;
26 [label="CHD7 <= 3.5\ngini = 0.42\nsamples = 10\nvalue = [0, 7, 3, 0]"] ;
25 -> 26 ;
27 [label="CHD11 <= 3.5\ngini = 0.48\nsamples = 5\nvalue = [0, 2, 3, 0]"] ;
26 -> 27 ;
28 [label="gini = 0.0\nsamples = 2\nvalue = [0, 0, 2, 0]"] ;
27 -> 28 ;
29 [label="CHD4 <= 2.5\ngini = 0.444\nsamples = 3\nvalue = [0, 2, 1, 0]"] ;
27 -> 29 ;
30 [label="gini = 0.0\nsamples = 2\nvalue = [0, 2, 0, 0]"] ;
29 -> 30 ;
31 [label="gini = 0.0\nsamples = 1\nvalue = [0, 0, 1, 0]"] ;
29 -> 31 ;
32 [label="gini = 0.0\nsamples = 5\nvalue = [0, 5, 0, 0]"] ;
26 -> 32 ;
33 [label="CHD13 <= 2.5\ngini = 0.444\nsamples = 3\nvalue = [2, 1, 0, 0]"] ;
25 -> 33 ;
34 [label="gini = 0.0\nsamples = 2\nvalue = [2, 0, 0, 0]"] ;
33 -> 34 ;
35 [label="gini = 0.0\nsamples = 1\nvalue = [0, 1, 0, 0]"] ;
33 -> 35 ;
36 [label="CHD13 <= 4.5\ngini = 0.481\nsamples = 143\nvalue = [4, 93, 44, 2]"] ;
0 -> 36 [labeldistance=2.5, labelangle=-45, headlabel="False"] ;
37 [label="CHD3 <= 1.5\ngini = 0.512\nsamples = 115\nvalue = [3, 69, 41, 2]"] ;
36 -> 37 ;
38 [label="CHD14 <= 2.5\ngini = 0.32\nsamples = 5\nvalue = [0, 1, 4, 0]"] ;
37 -> 38 ;
39 [label="gini = 0.0\nsamples = 3\nvalue = [0, 0, 3, 0]"] ;
38 -> 39 ;
40 [label="CHD4 <= 1.5\ngini = 0.5\nsamples = 2\nvalue = [0, 1, 1, 0]"] ;
38 -> 40 ;
41 [label="gini = 0.0\nsamples = 1\nvalue = [0, 0, 1, 0]"] ;
40 -> 41 ;
42 [label="gini = 0.0\nsamples = 1\nvalue = [0, 1, 0, 0]"] ;
40 -> 42 ;
43 [label="CHD3 <= 2.5\ngini = 0.504\nsamples = 110\nvalue = [3, 68, 37, 2]"] ;
37 -> 43 ;
44 [label="CHD5 <= 1.5\ngini = 0.365\nsamples = 28\nvalue = [1, 22, 3, 2]"] ;
43 -> 44 ;
45 [label="gini = 0.0\nsamples = 1\nvalue = [0, 0, 1, 0]"] ;
44 -> 45 ;
46 [label="CHD2 <= 1.5\ngini = 0.324\nsamples = 27\nvalue = [1, 22, 2, 2]"] ;
44 -> 46 ;
47 [label="gini = 0.0\nsamples = 1\nvalue = [0, 0, 1, 0]"] ;
46 -> 47 ;
48 [label="CHD1 <= 4.5\ngini = 0.275\nsamples = 26\nvalue = [1, 22, 1, 2]"] ;
46 -> 48 ;
49 [label="CHD2 <= 4.5\ngini = 0.169\nsamples = 22\nvalue = [1, 20, 1, 0]"] ;
48 -> 49 ;
50 [label="CHD14 <= 3.5\ngini = 0.1\nsamples = 19\nvalue = [0, 18, 1, 0]"] ;
49 -> 50 ;
51 [label="gini = 0.0\nsamples = 13\nvalue = [0, 13, 0, 0]"] ;
50 -> 51 ;
52 [label="CHD13 <= 2.5\ngini = 0.278\nsamples = 6\nvalue = [0, 5, 1, 0]"] ;
50 -> 52 ;
53 [label="gini = 0.0\nsamples = 1\nvalue = [0, 0, 1, 0]"] ;
52 -> 53 ;
54 [label="gini = 0.0\nsamples = 5\nvalue = [0, 5, 0, 0]"] ;
52 -> 54 ;
55 [label="CHD9 <= 2.5\ngini = 0.444\nsamples = 3\nvalue = [1, 2, 0, 0]"] ;
49 -> 55 ;
56 [label="gini = 0.0\nsamples = 1\nvalue = [1, 0, 0, 0]"] ;
55 -> 56 ;
57 [label="gini = 0.0\nsamples = 2\nvalue = [0, 2, 0, 0]"] ;
55 -> 57 ;
58 [label="CHD8 <= 2.5\ngini = 0.5\nsamples = 4\nvalue = [0, 2, 0, 2]"] ;
48 -> 58 ;
59 [label="gini = 0.0\nsamples = 2\nvalue = [0, 2, 0, 0]"] ;
58 -> 59 ;
60 [label="gini = 0.0\nsamples = 2\nvalue = [0, 0, 0, 2]"] ;
58 -> 60 ;
61 [label="CHD2 <= 3.5\ngini = 0.513\nsamples = 82\nvalue = [2, 46, 34, 0]"] ;
43 -> 61 ;
62 [label="CHD2 <= 2.5\ngini = 0.567\nsamples = 23\nvalue = [2, 9, 12, 0]"] ;
61 -> 62 ;
63 [label="CHD3 <= 3.5\ngini = 0.5\nsamples = 6\nvalue = [1, 4, 1, 0]"] ;
62 -> 63 ;
64 [label="gini = 0.0\nsamples = 1\nvalue = [1, 0, 0, 0]"] ;
63 -> 64 ;
65 [label="CHD1 <= 3.5\ngini = 0.32\nsamples = 5\nvalue = [0, 4, 1, 0]"] ;
63 -> 65 ;
66 [label="gini = 0.0\nsamples = 1\nvalue = [0, 0, 1, 0]"] ;
65 -> 66 ;
67 [label="gini = 0.0\nsamples = 4\nvalue = [0, 4, 0, 0]"] ;
65 -> 67 ;
68 [label="CHD12 <= 4.5\ngini = 0.491\nsamples = 17\nvalue = [1, 5, 11, 0]"] ;
62 -> 68 ;
69 [label="CHD8 <= 3.5\ngini = 0.569\nsamples = 12\nvalue = [1, 5, 6, 0]"] ;
68 -> 69 ;
70 [label="CHD11 <= 4.5\ngini = 0.32\nsamples = 5\nvalue = [0, 4, 1, 0]"] ;
69 -> 70 ;
71 [label="gini = 0.0\nsamples = 4\nvalue = [0, 4, 0, 0]"] ;
70 -> 71 ;
72 [label="gini = 0.0\nsamples = 1\nvalue = [0, 0, 1, 0]"] ;
70 -> 72 ;
73 [label="CHD3 <= 3.5\ngini = 0.449\nsamples = 7\nvalue = [1, 1, 5, 0]"] ;
69 -> 73 ;
74 [label="gini = 0.0\nsamples = 3\nvalue = [0, 0, 3, 0]"] ;
73 -> 74 ;
75 [label="CHD1 <= 1.5\ngini = 0.625\nsamples = 4\nvalue = [1, 1, 2, 0]"] ;
73 -> 75 ;
76 [label="gini = 0.0\nsamples = 2\nvalue = [0, 0, 2, 0]"] ;
75 -> 76 ;
77 [label="CHD12 <= 3.5\ngini = 0.5\nsamples = 2\nvalue = [1, 1, 0, 0]"] ;
75 -> 77 ;
78 [label="gini = 0.0\nsamples = 1\nvalue = [0, 1, 0, 0]"] ;
77 -> 78 ;
79 [label="gini = 0.0\nsamples = 1\nvalue = [1, 0, 0, 0]"] ;
77 -> 79 ;
80 [label="gini = 0.0\nsamples = 5\nvalue = [0, 0, 5, 0]"] ;
68 -> 80 ;
81 [label="CHD11 <= 4.5\ngini = 0.468\nsamples = 59\nvalue = [0, 37, 22, 0]"] ;
61 -> 81 ;
82 [label="CHD12 <= 2.5\ngini = 0.5\nsamples = 33\nvalue = [0, 16, 17, 0]"] ;
81 -> 82 ;
83 [label="CHD10 <= 1.5\ngini = 0.245\nsamples = 7\nvalue = [0, 1, 6, 0]"] ;
82 -> 83 ;
84 [label="gini = 0.0\nsamples = 1\nvalue = [0, 1, 0, 0]"] ;
83 -> 84 ;
85 [label="gini = 0.0\nsamples = 6\nvalue = [0, 0, 6, 0]"] ;
83 -> 85 ;
86 [label="CHD9 <= 2.5\ngini = 0.488\nsamples = 26\nvalue = [0, 15, 11, 0]"] ;
82 -> 86 ;
87 [label="gini = 0.0\nsamples = 2\nvalue = [0, 2, 0, 0]"] ;
86 -> 87 ;
88 [label="CHD7 <= 2.5\ngini = 0.497\nsamples = 24\nvalue = [0, 13, 11, 0]"] ;
86 -> 88 ;
89 [label="CHD14 <= 4.5\ngini = 0.408\nsamples = 7\nvalue = [0, 2, 5, 0]"] ;
88 -> 89 ;
90 [label="gini = 0.0\nsamples = 5\nvalue = [0, 0, 5, 0]"] ;
89 -> 90 ;
91 [label="gini = 0.0\nsamples = 2\nvalue = [0, 2, 0, 0]"] ;
89 -> 91 ;
92 [label="CHD7 <= 3.5\ngini = 0.457\nsamples = 17\nvalue = [0, 11, 6, 0]"] ;
88 -> 92 ;
93 [label="CHD12 <= 3.5\ngini = 0.245\nsamples = 7\nvalue = [0, 6, 1, 0]"] ;
92 -> 93 ;
94 [label="gini = 0.0\nsamples = 6\nvalue = [0, 6, 0, 0]"] ;
93 -> 94 ;
95 [label="gini = 0.0\nsamples = 1\nvalue = [0, 0, 1, 0]"] ;
93 -> 95 ;
96 [label="CHD11 <= 3.5\ngini = 0.5\nsamples = 10\nvalue = [0, 5, 5, 0]"] ;
92 -> 96 ;
97 [label="CHD7 <= 4.5\ngini = 0.375\nsamples = 4\nvalue = [0, 3, 1, 0]"] ;
96 -> 97 ;
98 [label="gini = 0.0\nsamples = 3\nvalue = [0, 3, 0, 0]"] ;
97 -> 98 ;
99 [label="gini = 0.0\nsamples = 1\nvalue = [0, 0, 1, 0]"] ;
97 -> 99 ;
100 [label="CHD4 <= 3.5\ngini = 0.444\nsamples = 6\nvalue = [0, 2, 4, 0]"] ;
96 -> 100 ;
101 [label="gini = 0.0\nsamples = 3\nvalue = [0, 0, 3, 0]"] ;
100 -> 101 ;
102 [label="CHD14 <= 3.5\ngini = 0.444\nsamples = 3\nvalue = [0, 2, 1, 0]"] ;
100 -> 102 ;
103 [label="gini = 0.0\nsamples = 1\nvalue = [0, 0, 1, 0]"] ;
102 -> 103 ;
104 [label="gini = 0.0\nsamples = 2\nvalue = [0, 2, 0, 0]"] ;
102 -> 104 ;
105 [label="CHD6 <= 3.5\ngini = 0.311\nsamples = 26\nvalue = [0, 21, 5, 0]"] ;
81 -> 105 ;
106 [label="gini = 0.0\nsamples = 6\nvalue = [0, 6, 0, 0]"] ;
105 -> 106 ;
107 [label="CHD12 <= 1.5\ngini = 0.375\nsamples = 20\nvalue = [0, 15, 5, 0]"] ;
105 -> 107 ;
108 [label="CHD13 <= 3.0\ngini = 0.49\nsamples = 7\nvalue = [0, 4, 3, 0]"] ;
107 -> 108 ;
109 [label="gini = 0.0\nsamples = 2\nvalue = [0, 2, 0, 0]"] ;
108 -> 109 ;
110 [label="CHD8 <= 4.5\ngini = 0.48\nsamples = 5\nvalue = [0, 2, 3, 0]"] ;
108 -> 110 ;
111 [label="gini = 0.0\nsamples = 2\nvalue = [0, 0, 2, 0]"] ;
110 -> 111 ;
112 [label="CHD10 <= 4.5\ngini = 0.444\nsamples = 3\nvalue = [0, 2, 1, 0]"] ;
110 -> 112 ;
113 [label="gini = 0.0\nsamples = 2\nvalue = [0, 2, 0, 0]"] ;
112 -> 113 ;
114 [label="gini = 0.0\nsamples = 1\nvalue = [0, 0, 1, 0]"] ;
112 -> 114 ;
115 [label="CHD14 <= 2.0\ngini = 0.26\nsamples = 13\nvalue = [0, 11, 2, 0]"] ;
107 -> 115 ;
116 [label="CHD9 <= 4.5\ngini = 0.5\nsamples = 2\nvalue = [0, 1, 1, 0]"] ;
115 -> 116 ;
117 [label="gini = 0.0\nsamples = 1\nvalue = [0, 0, 1, 0]"] ;
116 -> 117 ;
118 [label="gini = 0.0\nsamples = 1\nvalue = [0, 1, 0, 0]"] ;
116 -> 118 ;
119 [label="CHD13 <= 2.0\ngini = 0.165\nsamples = 11\nvalue = [0, 10, 1, 0]"] ;
115 -> 119 ;
120 [label="gini = 0.0\nsamples = 1\nvalue = [0, 0, 1, 0]"] ;
119 -> 120 ;
121 [label="gini = 0.0\nsamples = 10\nvalue = [0, 10, 0, 0]"] ;
119 -> 121 ;
122 [label="CHD9 <= 4.5\ngini = 0.253\nsamples = 28\nvalue = [1, 24, 3, 0]"] ;
36 -> 122 ;
123 [label="CHD8 <= 1.5\ngini = 0.156\nsamples = 24\nvalue = [1, 22, 1, 0]"] ;
122 -> 123 ;
124 [label="gini = 0.0\nsamples = 1\nvalue = [0, 0, 1, 0]"] ;
123 -> 124 ;
125 [label="CHD14 <= 2.5\ngini = 0.083\nsamples = 23\nvalue = [1, 22, 0, 0]"] ;
123 -> 125 ;
126 [label="CHD7 <= 2.5\ngini = 0.5\nsamples = 2\nvalue = [1, 1, 0, 0]"] ;
125 -> 126 ;
127 [label="gini = 0.0\nsamples = 1\nvalue = [1, 0, 0, 0]"] ;
126 -> 127 ;
128 [label="gini = 0.0\nsamples = 1\nvalue = [0, 1, 0, 0]"] ;
126 -> 128 ;
129 [label="gini = 0.0\nsamples = 21\nvalue = [0, 21, 0, 0]"] ;
125 -> 129 ;
130 [label="CHD3 <= 3.0\ngini = 0.5\nsamples = 4\nvalue = [0, 2, 2, 0]"] ;
122 -> 130 ;
131 [label="gini = 0.0\nsamples = 2\nvalue = [0, 2, 0, 0]"] ;
130 -> 131 ;
132 [label="gini = 0.0\nsamples = 2\nvalue = [0, 0, 2, 0]"] ;
130 -> 132 ;
}